Language model created by QuickLM on Mon Apr  3 06:55:39 EDT 2023
Copyright (c) 1996-2010 Carnegie Mellon University and Alexander I. Rudnicky

The model is in standard ARPA format, designed by Doug Paul while he was at MITRE.

The code that was used to produce this language model is available in Open Source.
Please visit http://www.speech.cs.cmu.edu/tools/ for more information

The (fixed) discount mass is 0.5. The backoffs are computed using the ratio method.
This model based on a corpus of 95 sentences and 91 words

\data\
ngram 1=91
ngram 2=185
ngram 3=177

\1-grams:
-0.9265 </s> -0.3010
-0.9265 <s> -0.2262
-2.9042 A -0.3005
-2.6031 AFTERNOON -0.2420
-2.9042 ALARMS -0.2463
-2.9042 AM -0.3005
-2.6031 ARE -0.2983
-2.9042 BRAVE -0.2463
-2.6031 CALCULATOR -0.2463
-2.4271 CALENDER -0.2463
-2.6031 CAMERA -0.2463
-2.9042 CAN -0.2983
-2.4271 CHROME -0.2463
-2.9042 CLOCK -0.2463
-1.4570 CLOSE -0.2690
-2.4271 CODE -0.2463
-2.6031 COMMAND -0.2999
-2.6031 CONTROL -0.2999
-2.3021 DATE -0.2450
-2.9042 DOING -0.3005
-2.6031 DRIVE -0.2463
-2.6031 EDGE -0.2463
-2.6031 EVENING -0.2420
-2.6031 EXCEL -0.2463
-2.6031 EXPLORER -0.2463
-2.4271 GMAIL -0.2463
-2.9042 GO -0.3005
-2.0011 GOOD -0.2967
-2.4271 GOOGLE -0.2989
-2.9042 GREAT -0.2463
-2.6031 HELLO -0.2420
-2.4271 HI -0.2407
-2.6031 HOW -0.2999
-2.9042 I -0.3005
-2.4271 IS -0.2972
-2.0591 JARVIS -0.2463
-2.6031 KEYBOARD -0.2463
-2.9042 LOCK -0.2989
-2.6031 MAGNIFIER -0.2463
-2.9042 MANAGER -0.2463
-2.9042 MAPS -0.2463
-2.9042 ME -0.2999
-2.6031 MORNING -0.2420
-2.9042 MUSIC -0.2463
-2.9042 NAME -0.2463
-2.6031 NIGHT -0.2420
-2.3021 NOTEPAD -0.2438
-2.9042 NOW -0.2463
-2.9042 OFF -0.2463
-2.6031 ON -0.2989
-2.6031 ONE -0.2999
-2.6031 OPEN -0.2989
-2.6031 PAD -0.2463
-2.6031 PAINT -0.2463
-2.6031 PANEL -0.2463
-2.9042 PHOTOS -0.2463
-2.6031 PLAY -0.2999
-2.3021 PLUS -0.2438
-2.6031 POWERPOINT -0.2463
-2.6031 POWERSHELL -0.2463
-2.6031 PROMPT -0.2463
-2.3021 SCREEN -0.2444
-2.9042 SCREENSHOT -0.2463
-2.9042 SETTINGS -0.2463
-2.9042 SLEEP -0.2463
-2.6031 SNIPPING -0.2999
-2.9042 SONG -0.2463
-2.4271 SPOTIFY -0.2463
-2.9042 STORE -0.2463
-2.4271 STUDIO -0.2444
-2.9042 TAKE -0.3005
-2.9042 TASK -0.3005
-2.9042 TELL -0.3005
-2.6031 THANK -0.2983
-2.3021 THE -0.2961
-2.9042 TIME -0.3005
-2.9042 TO -0.3005
-2.6031 TODAY -0.2463
-2.6031 TODAYS -0.2989
-2.6031 TOOL -0.2463
-2.9042 UP -0.2463
-2.4271 VISUAL -0.2994
-2.6031 VS -0.2994
-2.4271 WHAT -0.2994
-2.4271 WHATS -0.2983
-2.6031 WHATSAPP -0.2463
-2.6031 WINDOWS -0.2999
-2.3021 WORD -0.2450
-2.2052 YOU -0.2413
-2.9042 YOUR -0.3005
-2.6031 YOUTUBE -0.2463

\2-grams:
-2.2788 <s> ALARMS 0.0000
-2.2788 <s> CALCULATOR 0.0000
-2.2788 <s> CALENDER 0.0000
-2.2788 <s> CAMERA 0.0000
-2.2788 <s> CAN 0.0000
-2.2788 <s> CLOCK 0.0000
-0.8316 <s> CLOSE -0.0000
-2.2788 <s> COMMAND 0.0000
-2.2788 <s> CONTROL 0.0000
-2.2788 <s> EDGE 0.0000
-2.2788 <s> EXCEL 0.0000
-2.2788 <s> GMAIL 0.0000
-2.2788 <s> GO 0.0000
-1.3757 <s> GOOD 0.0000
-1.9777 <s> GOOGLE 0.0000
-1.9777 <s> HELLO 0.0000
-1.8016 <s> HI 0.0000
-2.2788 <s> HOW 0.0000
-2.2788 <s> I 0.0000
-2.2788 <s> LOCK 0.0000
-2.2788 <s> MAGNIFIER 0.0000
-1.9777 <s> NOTEPAD 0.0000
-2.2788 <s> ON 0.0000
-2.2788 <s> ONE 0.0000
-1.9777 <s> OPEN 0.0000
-2.2788 <s> PAINT 0.0000
-2.2788 <s> PHOTOS 0.0000
-1.9777 <s> PLAY 0.0000
-2.2788 <s> POWERPOINT 0.0000
-2.2788 <s> POWERSHELL 0.0000
-2.2788 <s> SCREEN -0.2430
-2.2788 <s> SETTINGS 0.0000
-2.2788 <s> SNIPPING 0.0000
-1.9777 <s> SPOTIFY 0.0000
-2.2788 <s> STORE 0.0000
-2.2788 <s> TAKE 0.0000
-2.2788 <s> TASK 0.0000
-1.9777 <s> THANK 0.0000
-1.9777 <s> VISUAL 0.0000
-2.2788 <s> VS 0.0000
-1.8016 <s> WHAT 0.0000
-1.8016 <s> WHATS 0.0000
-2.2788 <s> WHATSAPP 0.0000
-2.2788 <s> WINDOWS 0.0000
-1.9777 <s> WORD 0.0000
-2.2788 <s> YOUTUBE 0.0000
-0.3010 A SCREENSHOT 0.0000
-0.6021 AFTERNOON </s> -0.3010
-0.6021 AFTERNOON JARVIS 0.0000
-0.3010 ALARMS </s> -0.3010
-0.3010 AM DOING 0.0000
-0.3010 ARE YOU -0.1461
-0.3010 BRAVE </s> -0.3010
-0.3010 CALCULATOR </s> -0.3010
-0.3010 CALENDER </s> -0.3010
-0.3010 CAMERA </s> -0.3010
-0.3010 CAN YOU -0.2553
-0.3010 CHROME </s> -0.3010
-0.3010 CLOCK </s> -0.3010
-1.7482 CLOSE CALCULATOR 0.0000
-1.7482 CLOSE CAMERA 0.0000
-1.4472 CLOSE CHROME 0.0000
-1.7482 CLOSE COMMAND 0.0000
-1.7482 CLOSE CONTROL 0.0000
-1.7482 CLOSE EDGE 0.0000
-1.7482 CLOSE EXCEL 0.0000
-1.4472 CLOSE GMAIL 0.0000
-1.7482 CLOSE GOOGLE -0.1249
-1.7482 CLOSE MAGNIFIER 0.0000
-1.4472 CLOSE NOTEPAD 0.0000
-1.7482 CLOSE ON 0.0000
-1.7482 CLOSE ONE 0.0000
-1.7482 CLOSE PAINT 0.0000
-1.7482 CLOSE POWERPOINT 0.0000
-1.7482 CLOSE POWERSHELL 0.0000
-1.7482 CLOSE SNIPPING 0.0000
-1.7482 CLOSE SPOTIFY 0.0000
-1.7482 CLOSE VISUAL 0.0000
-1.7482 CLOSE VS 0.0000
-1.7482 CLOSE WHATSAPP 0.0000
-1.7482 CLOSE WINDOWS 0.0000
-1.4472 CLOSE WORD 0.0000
-1.7482 CLOSE YOUTUBE 0.0000
-0.3010 CODE </s> -0.3010
-0.3010 COMMAND PROMPT 0.0000
-0.3010 CONTROL PANEL 0.0000
-0.6021 DATE </s> -0.3010
-0.6021 DATE TODAY 0.0000
-0.3010 DOING GREAT 0.0000
-0.3010 DRIVE </s> -0.3010
-0.3010 EDGE </s> -0.3010
-0.6021 EVENING </s> -0.3010
-0.6021 EVENING JARVIS 0.0000
-0.3010 EXCEL </s> -0.3010
-0.3010 EXPLORER </s> -0.3010
-0.3010 GMAIL </s> -0.3010
-0.3010 GO TO 0.0000
-0.9031 GOOD AFTERNOON 0.0000
-0.9031 GOOD EVENING 0.0000
-0.9031 GOOD MORNING 0.0000
-0.9031 GOOD NIGHT 0.0000
-0.4771 GOOGLE CALENDER 0.0000
-0.7782 GOOGLE MAPS 0.0000
-0.3010 GREAT </s> -0.3010
-0.6021 HELLO </s> -0.3010
-0.6021 HELLO JARVIS 0.0000
-0.7782 HI </s> -0.3010
-0.7782 HI HOW 0.0000
-0.7782 HI JARVIS 0.0000
-0.3010 HOW ARE 0.0000
-0.3010 I AM 0.0000
-0.7782 IS THE -0.1761
-0.7782 IS TODAYS 0.0000
-0.7782 IS YOUR 0.0000
-0.3010 JARVIS </s> -0.3010
-0.3010 KEYBOARD </s> -0.3010
-0.3010 LOCK THE -0.2430
-0.3010 MAGNIFIER </s> -0.3010
-0.3010 MANAGER </s> -0.3010
-0.3010 MAPS </s> -0.3010
-0.3010 ME TODAYS 0.0000
-0.6021 MORNING </s> -0.3010
-0.6021 MORNING JARVIS 0.0000
-0.3010 MUSIC </s> -0.3010
-0.3010 NAME </s> -0.3010
-0.6021 NIGHT </s> -0.3010
-0.6021 NIGHT JARVIS 0.0000
-0.6021 NOTEPAD </s> -0.3010
-0.6021 NOTEPAD PLUS -0.1761
-0.3010 NOW </s> -0.3010
-0.3010 OFF </s> -0.3010
-0.3010 ON SCREEN -0.1761
-0.3010 ONE DRIVE 0.0000
-0.6021 OPEN BRAVE 0.0000
-0.6021 OPEN CHROME 0.0000
-0.3010 PAD </s> -0.3010
-0.3010 PAINT </s> -0.3010
-0.3010 PANEL </s> -0.3010
-0.3010 PHOTOS </s> -0.3010
-0.6021 PLAY MUSIC 0.0000
-0.6021 PLAY SONG 0.0000
-0.6021 PLUS </s> -0.3010
-0.6021 PLUS PLUS -0.1761
-0.3010 POWERPOINT </s> -0.3010
-0.3010 POWERSHELL </s> -0.3010
-0.3010 PROMPT </s> -0.3010
-0.9031 SCREEN </s> -0.3010
-0.6021 SCREEN KEYBOARD 0.0000
-0.9031 SCREEN OFF 0.0000
-0.3010 SCREENSHOT </s> -0.3010
-0.3010 SETTINGS </s> -0.3010
-0.3010 SLEEP </s> -0.3010
-0.3010 SNIPPING TOOL 0.0000
-0.3010 SONG </s> -0.3010
-0.3010 SPOTIFY </s> -0.3010
-0.3010 STORE </s> -0.3010
-0.4771 STUDIO </s> -0.3010
-0.7782 STUDIO CODE 0.0000
-0.3010 TAKE A 0.0000
-0.3010 TASK MANAGER 0.0000
-0.3010 TELL ME 0.0000
-0.3010 THANK YOU -0.0792
-0.6021 THE DATE -0.1761
-0.9031 THE SCREEN -0.2430
-0.9031 THE TIME 0.0000
-0.3010 TIME NOW 0.0000
-0.3010 TO SLEEP 0.0000
-0.3010 TODAY </s> -0.3010
-0.3010 TODAYS DATE -0.1761
-0.3010 TOOL </s> -0.3010
-0.3010 UP </s> -0.3010
-0.3010 VISUAL STUDIO 0.0000
-0.3010 VS CODE 0.0000
-0.3010 WHAT IS 0.0000
-0.4771 WHATS THE -0.0969
-0.7782 WHATS UP 0.0000
-0.3010 WHATSAPP </s> -0.3010
-0.3010 WINDOWS EXPLORER 0.0000
-0.6021 WORD </s> -0.3010
-0.6021 WORD PAD 0.0000
-0.5229 YOU </s> -0.3010
-1.0000 YOU JARVIS 0.0000
-1.0000 YOU TELL 0.0000
-0.3010 YOUR NAME 0.0000
-0.3010 YOUTUBE </s> -0.3010

\3-grams:
-0.3010 <s> ALARMS </s>
-0.3010 <s> CALCULATOR </s>
-0.3010 <s> CALENDER </s>
-0.3010 <s> CAMERA </s>
-0.3010 <s> CAN YOU
-0.3010 <s> CLOCK </s>
-1.7482 <s> CLOSE CALCULATOR
-1.7482 <s> CLOSE CAMERA
-1.4472 <s> CLOSE CHROME
-1.7482 <s> CLOSE COMMAND
-1.7482 <s> CLOSE CONTROL
-1.7482 <s> CLOSE EDGE
-1.7482 <s> CLOSE EXCEL
-1.4472 <s> CLOSE GMAIL
-1.7482 <s> CLOSE GOOGLE
-1.7482 <s> CLOSE MAGNIFIER
-1.4472 <s> CLOSE NOTEPAD
-1.7482 <s> CLOSE ON
-1.7482 <s> CLOSE ONE
-1.7482 <s> CLOSE PAINT
-1.7482 <s> CLOSE POWERPOINT
-1.7482 <s> CLOSE POWERSHELL
-1.7482 <s> CLOSE SNIPPING
-1.7482 <s> CLOSE SPOTIFY
-1.7482 <s> CLOSE VISUAL
-1.7482 <s> CLOSE VS
-1.7482 <s> CLOSE WHATSAPP
-1.7482 <s> CLOSE WINDOWS
-1.4472 <s> CLOSE WORD
-1.7482 <s> CLOSE YOUTUBE
-0.3010 <s> COMMAND PROMPT
-0.3010 <s> CONTROL PANEL
-0.3010 <s> EDGE </s>
-0.3010 <s> EXCEL </s>
-0.3010 <s> GMAIL </s>
-0.3010 <s> GO TO
-0.9031 <s> GOOD AFTERNOON
-0.9031 <s> GOOD EVENING
-0.9031 <s> GOOD MORNING
-0.9031 <s> GOOD NIGHT
-0.6021 <s> GOOGLE CALENDER
-0.6021 <s> GOOGLE MAPS
-0.6021 <s> HELLO </s>
-0.6021 <s> HELLO JARVIS
-0.7782 <s> HI </s>
-0.7782 <s> HI HOW
-0.7782 <s> HI JARVIS
-0.3010 <s> HOW ARE
-0.3010 <s> I AM
-0.3010 <s> LOCK THE
-0.3010 <s> MAGNIFIER </s>
-0.6021 <s> NOTEPAD </s>
-0.6021 <s> NOTEPAD PLUS
-0.3010 <s> ON SCREEN
-0.3010 <s> ONE DRIVE
-0.6021 <s> OPEN BRAVE
-0.6021 <s> OPEN CHROME
-0.3010 <s> PAINT </s>
-0.3010 <s> PHOTOS </s>
-0.6021 <s> PLAY MUSIC
-0.6021 <s> PLAY SONG
-0.3010 <s> POWERPOINT </s>
-0.3010 <s> POWERSHELL </s>
-0.3010 <s> SCREEN OFF
-0.3010 <s> SETTINGS </s>
-0.3010 <s> SNIPPING TOOL
-0.3010 <s> SPOTIFY </s>
-0.3010 <s> STORE </s>
-0.3010 <s> TAKE A
-0.3010 <s> TASK MANAGER
-0.3010 <s> THANK YOU
-0.3010 <s> VISUAL STUDIO
-0.3010 <s> VS CODE
-0.3010 <s> WHAT IS
-0.4771 <s> WHATS THE
-0.7782 <s> WHATS UP
-0.3010 <s> WHATSAPP </s>
-0.3010 <s> WINDOWS EXPLORER
-0.6021 <s> WORD </s>
-0.6021 <s> WORD PAD
-0.3010 <s> YOUTUBE </s>
-0.3010 A SCREENSHOT </s>
-0.3010 AFTERNOON JARVIS </s>
-0.3010 AM DOING GREAT
-0.3010 ARE YOU </s>
-0.3010 CAN YOU TELL
-0.3010 CLOSE CALCULATOR </s>
-0.3010 CLOSE CAMERA </s>
-0.3010 CLOSE CHROME </s>
-0.3010 CLOSE COMMAND PROMPT
-0.3010 CLOSE CONTROL PANEL
-0.3010 CLOSE EDGE </s>
-0.3010 CLOSE EXCEL </s>
-0.3010 CLOSE GMAIL </s>
-0.3010 CLOSE GOOGLE CALENDER
-0.3010 CLOSE MAGNIFIER </s>
-0.6021 CLOSE NOTEPAD </s>
-0.6021 CLOSE NOTEPAD PLUS
-0.3010 CLOSE ON SCREEN
-0.3010 CLOSE ONE DRIVE
-0.3010 CLOSE PAINT </s>
-0.3010 CLOSE POWERPOINT </s>
-0.3010 CLOSE POWERSHELL </s>
-0.3010 CLOSE SNIPPING TOOL
-0.3010 CLOSE SPOTIFY </s>
-0.3010 CLOSE VISUAL STUDIO
-0.3010 CLOSE VS CODE
-0.3010 CLOSE WHATSAPP </s>
-0.3010 CLOSE WINDOWS EXPLORER
-0.6021 CLOSE WORD </s>
-0.6021 CLOSE WORD PAD
-0.3010 CLOSE YOUTUBE </s>
-0.3010 COMMAND PROMPT </s>
-0.3010 CONTROL PANEL </s>
-0.3010 DATE TODAY </s>
-0.3010 DOING GREAT </s>
-0.3010 EVENING JARVIS </s>
-0.3010 GO TO SLEEP
-0.6021 GOOD AFTERNOON </s>
-0.6021 GOOD AFTERNOON JARVIS
-0.6021 GOOD EVENING </s>
-0.6021 GOOD EVENING JARVIS
-0.6021 GOOD MORNING </s>
-0.6021 GOOD MORNING JARVIS
-0.6021 GOOD NIGHT </s>
-0.6021 GOOD NIGHT JARVIS
-0.3010 GOOGLE CALENDER </s>
-0.3010 GOOGLE MAPS </s>
-0.3010 HELLO JARVIS </s>
-0.3010 HI HOW ARE
-0.3010 HI JARVIS </s>
-0.3010 HOW ARE YOU
-0.3010 I AM DOING
-0.3010 IS THE DATE
-0.3010 IS TODAYS DATE
-0.3010 IS YOUR NAME
-0.3010 LOCK THE SCREEN
-0.3010 ME TODAYS DATE
-0.3010 MORNING JARVIS </s>
-0.3010 NIGHT JARVIS </s>
-0.3010 NOTEPAD PLUS PLUS
-0.3010 ON SCREEN KEYBOARD
-0.3010 ONE DRIVE </s>
-0.3010 OPEN BRAVE </s>
-0.3010 OPEN CHROME </s>
-0.3010 PLAY MUSIC </s>
-0.3010 PLAY SONG </s>
-0.3010 PLUS PLUS </s>
-0.3010 SCREEN KEYBOARD </s>
-0.3010 SCREEN OFF </s>
-0.3010 SNIPPING TOOL </s>
-0.3010 STUDIO CODE </s>
-0.3010 TAKE A SCREENSHOT
-0.3010 TASK MANAGER </s>
-0.3010 TELL ME TODAYS
-0.6021 THANK YOU </s>
-0.6021 THANK YOU JARVIS
-0.3010 THE DATE TODAY
-0.3010 THE SCREEN </s>
-0.3010 THE TIME NOW
-0.3010 TIME NOW </s>
-0.3010 TO SLEEP </s>
-0.3010 TODAYS DATE </s>
-0.4771 VISUAL STUDIO </s>
-0.7782 VISUAL STUDIO CODE
-0.3010 VS CODE </s>
-0.7782 WHAT IS THE
-0.7782 WHAT IS TODAYS
-0.7782 WHAT IS YOUR
-0.6021 WHATS THE DATE
-0.6021 WHATS THE TIME
-0.3010 WHATS UP </s>
-0.3010 WINDOWS EXPLORER </s>
-0.3010 WORD PAD </s>
-0.3010 YOU JARVIS </s>
-0.3010 YOU TELL ME
-0.3010 YOUR NAME </s>

\end\